{
  "layer": [
    {
      "phase": 1, 
      "input_param": {
        "shape": [
          {
            "dim": [
              1, 
              1, 
              3, 
              3
            ]
          }
        ]
      }, 
      "top": [
        "data"
      ], 
      "type": "Input", 
      "name": "data"
    }, 
    {
      "blobs": [
        {
          "shape": {
            "dim": [
              10, 
              1, 
              3, 
              3
            ]
          }, 
          "data": [
            0.8539451360702515, 
            -0.3899011015892029, 
            0.8688828349113464, 
            -0.4266754388809204, 
            -0.3156368136405945, 
            1.4373717308044434, 
            1.1227315664291382, 
            0.03761875629425049, 
            1.0430728197097778, 
            -1.952903389930725, 
            0.4867929220199585, 
            0.4773891866207123, 
            0.7675931453704834, 
            0.1918683797121048, 
            -0.5080026388168335, 
            -0.4781799018383026, 
            -2.530762195587158, 
            0.9974851012229919, 
            0.6158812642097473, 
            -0.8290657997131348, 
            0.9665524959564209, 
            -1.5149699449539185, 
            -2.2765910625457764, 
            0.22116637229919434, 
            0.3185146450996399, 
            0.8095834255218506, 
            -0.9829115271568298, 
            0.49663591384887695, 
            0.34535539150238037, 
            -0.9409715533256531, 
            0.6504409909248352, 
            -0.19050422310829163, 
            -1.4360758066177368, 
            0.46267515420913696, 
            0.4018551707267761, 
            -1.4281984567642212, 
            -0.6072336435317993, 
            0.4483378231525421, 
            -0.07235618680715561, 
            -0.629890501499176, 
            -2.0184168815612793, 
            -0.029715703800320625, 
            -0.8460023403167725, 
            -0.29544514417648315, 
            -1.122565746307373, 
            -0.6320475339889526, 
            -0.6392064690589905, 
            0.6589788198471069, 
            -0.8231547474861145, 
            0.619818389415741, 
            -0.22194865345954895, 
            0.9491766691207886, 
            -0.15767639875411987, 
            -0.5764977931976318, 
            -0.6530953049659729, 
            0.6537351608276367, 
            0.8062050342559814, 
            -0.1490861177444458, 
            -0.6653656959533691, 
            -0.5000444054603577, 
            -0.756310224533081, 
            0.5731145143508911, 
            0.3290257751941681, 
            0.9333750009536743, 
            0.06562133878469467, 
            0.1253562718629837, 
            -0.4834013879299164, 
            0.36806610226631165, 
            -0.22051025927066803, 
            2.3949880599975586, 
            -1.007800579071045, 
            -0.39457571506500244, 
            0.5698938369750977, 
            2.398088216781616, 
            -0.41057029366493225, 
            -0.38188546895980835, 
            -0.23977316915988922, 
            1.3484363555908203, 
            1.1641560792922974, 
            -1.9672982692718506, 
            1.2537394762039185, 
            0.6627583503723145, 
            0.05122511461377144, 
            1.666028380393982, 
            0.874396800994873, 
            0.3607484698295593, 
            0.5436602234840393, 
            1.1326534748077393, 
            0.7229316830635071, 
            0.028038619086146355
          ]
        }, 
        {
          "shape": {
            "dim": [
              10
            ]
          }, 
          "data": [
            0.0, 
            0.0, 
            0.0, 
            0.0, 
            0.0, 
            0.0, 
            0.0, 
            0.0, 
            0.0, 
            0.0
          ]
        }
      ], 
      "bottom": [
        "data"
      ], 
      "top": [
        "conv1"
      ], 
      "convolution_param": {
        "num_output": 10, 
        "weight_filler": {
          "std": 1.0, 
          "type": "gaussian"
        }, 
        "stride": [
          1
        ], 
        "pad": [
          0
        ], 
        "bias_filler": {
          "type": "constant", 
          "value": 0.0
        }, 
        "kernel_size": [
          3
        ]
      }, 
      "phase": 1, 
      "type": "Convolution", 
      "name": "conv1"
    }
  ], 
  "name": "naive"
}
